digraph Tree {
node [shape=box, style="rounded", color="black", fontname=helvetica] ;
edge [fontname=helvetica] ;
0 [label="temp_1 <= 59.5\nmse = 148.8\nsamples = 159\nvalue = 62.2"] ;
1 [label="temp_1 <= 47.5\nmse = 46.3\nsamples = 63\nvalue = 50.5"] ;
0 -> 1 [labeldistance=2.5, labelangle=45, headlabel="True"] ;
2 [label="temp_1 <= 39.5\nmse = 12.2\nsamples = 17\nvalue = 41.4"] ;
1 -> 2 ;
3 [label="mse = 2.6\nsamples = 3\nvalue = 35.8"] ;
2 -> 3 ;
4 [label="mse = 5.3\nsamples = 14\nvalue = 42.7"] ;
2 -> 4 ;
5 [label="average <= 53.8\nmse = 20.9\nsamples = 46\nvalue = 53.5"] ;
1 -> 5 ;
6 [label="mse = 11.0\nsamples = 35\nvalue = 51.8"] ;
5 -> 6 ;
7 [label="mse = 5.6\nsamples = 11\nvalue = 59.8"] ;
5 -> 7 ;
8 [label="temp_1 <= 71.5\nmse = 66.0\nsamples = 96\nvalue = 69.9"] ;
0 -> 8 [labeldistance=2.5, labelangle=-45, headlabel="False"] ;
9 [label="forecast_acc <= 71.5\nmse = 31.1\nsamples = 53\nvalue = 65.0"] ;
8 -> 9 ;
10 [label="mse = 21.2\nsamples = 39\nvalue = 63.1"] ;
9 -> 10 ;
11 [label="mse = 16.4\nsamples = 14\nvalue = 70.9"] ;
9 -> 11 ;
12 [label="forecast_under <= 76.5\nmse = 43.6\nsamples = 43\nvalue = 75.9"] ;
8 -> 12 ;
13 [label="mse = 47.2\nsamples = 25\nvalue = 73.7"] ;
12 -> 13 ;
14 [label="mse = 25.2\nsamples = 18\nvalue = 78.7"] ;
12 -> 14 ;
}