digraph Tree {
node [shape=box, style="rounded", color="black", fontname=helvetica] ;
edge [fontname=helvetica] ;
0 [label="temp_1 <= 57.5\nmse = 124.6\nsamples = 172\nvalue = 62.8"] ;
1 [label="temp_1 <= 47.0\nmse = 45.6\nsamples = 61\nvalue = 50.6"] ;
0 -> 1 [labeldistance=2.5, labelangle=45, headlabel="True"] ;
2 [label="average <= 46.9\nmse = 18.8\nsamples = 15\nvalue = 41.4"] ;
1 -> 2 ;
3 [label="mse = 10.1\nsamples = 13\nvalue = 40.4"] ;
2 -> 3 ;
4 [label="mse = 0.2\nsamples = 2\nvalue = 50.5"] ;
2 -> 4 ;
5 [label="forecast_noaa <= 51.5\nmse = 21.1\nsamples = 46\nvalue = 53.3"] ;
1 -> 5 ;
6 [label="mse = 15.9\nsamples = 38\nvalue = 52.1"] ;
5 -> 6 ;
7 [label="mse = 7.4\nsamples = 8\nvalue = 58.8"] ;
5 -> 7 ;
8 [label="temp_1 <= 68.5\nmse = 59.9\nsamples = 111\nvalue = 68.5"] ;
0 -> 8 [labeldistance=2.5, labelangle=-45, headlabel="False"] ;
9 [label="average <= 62.3\nmse = 27.6\nsamples = 51\nvalue = 63.3"] ;
8 -> 9 ;
10 [label="mse = 16.2\nsamples = 29\nvalue = 60.6"] ;
9 -> 10 ;
11 [label="mse = 21.6\nsamples = 22\nvalue = 66.6"] ;
9 -> 11 ;
12 [label="forecast_under <= 76.5\nmse = 38.3\nsamples = 60\nvalue = 73.7"] ;
8 -> 12 ;
13 [label="mse = 34.4\nsamples = 43\nvalue = 72.2"] ;
12 -> 13 ;
14 [label="mse = 20.4\nsamples = 17\nvalue = 78.5"] ;
12 -> 14 ;
}